<?xml version="1.0"?>
<opencv_storage>
<stage11>
  <maxWeakCount>7</maxWeakCount>
  <stageThreshold>-1.1354017257690430e+00</stageThreshold>
  <weakClassifiers>
    <_>
      <internalNodes>
        0 -1 786749 1.7015931662172079e-03</internalNodes>
      <leafValues>
        -7.3849880695343018e-01 5.6149733066558838e-01</leafValues></_>
    <_>
      <internalNodes>
        0 -1 690955 1.6325369870173745e-05</internalNodes>
      <leafValues>
        -7.1505534648895264e-01 3.1489926576614380e-01</leafValues></_>
    <_>
      <internalNodes>
        0 -1 1203353 -2.0158421248197556e-03</internalNodes>
      <leafValues>
        3.8236731290817261e-01 -6.5588349103927612e-01</leafValues></_>
    <_>
      <internalNodes>
        0 -1 2035199 1.1960803531110287e-02</internalNodes>
      <leafValues>
        -3.3579018712043762e-01 7.3771297931671143e-01</leafValues></_>
    <_>
      <internalNodes>
        0 -1 1541809 8.6660683155059814e-03</internalNodes>
      <leafValues>
        3.4749791026115417e-01 -8.2010591030120850e-01</leafValues></_>
    <_>
      <internalNodes>
        0 -1 973079 -3.1428271904587746e-04</internalNodes>
      <leafValues>
        3.6860442161560059e-01 -6.6761511564254761e-01</leafValues></_>
    <_>
      <internalNodes>
        0 -1 1878458 1.1258679442107677e-02</internalNodes>
      <leafValues>
        -3.4213018417358398e-01 7.5617998838424683e-01</leafValues></_></weakClassifiers></stage11>
</opencv_storage>
