<?xml version="1.0"?>
<opencv_storage>
<stage3>
  <maxWeakCount>5</maxWeakCount>
  <stageThreshold>-1.5748302936553955e+00</stageThreshold>
  <weakClassifiers>
    <_>
      <internalNodes>
        0 -1 1769812 6.6425018012523651e-03</internalNodes>
      <leafValues>
        -7.9214781522750854e-01 8.5628741979598999e-01</leafValues></_>
    <_>
      <internalNodes>
        0 -1 1052867 1.5082752332091331e-02</internalNodes>
      <leafValues>
        -5.6521511077880859e-01 8.4240698814392090e-01</leafValues></_>
    <_>
      <internalNodes>
        0 -1 921908 -4.1382163763046265e-03</internalNodes>
      <leafValues>
        8.1069147586822510e-01 -4.1236272454261780e-01</leafValues></_>
    <_>
      <internalNodes>
        0 -1 1250156 -1.3310085982084274e-02</internalNodes>
      <leafValues>
        7.7418577671051025e-01 -5.3002947568893433e-01</leafValues></_>
    <_>
      <internalNodes>
        0 -1 1947357 1.1700942181050777e-02</internalNodes>
      <leafValues>
        -4.9812942743301392e-01 7.2877317667007446e-01</leafValues></_></weakClassifiers></stage3>
</opencv_storage>
